digraph Tree {
node [shape=box, style="filled, rounded", color="black", fontname="helvetica"] ;
edge [fontname="helvetica"] ;
0 [label="sepal length (cm) <= 5.45\ngini = 0.66\nsamples = 96\nvalue = [44, 59, 47]\nclass = versicolor", fillcolor="#e8fcf0"] ;
1 [label="sepal width (cm) <= 2.8\ngini = 0.35\nsamples = 34\nvalue = [41, 8, 3]\nclass = setosa", fillcolor="#eca06a"] ;
0 -> 1 [labeldistance=2.5, labelangle=45, headlabel="True"] ;
2 [label="gini = 0.4\nsamples = 5\nvalue = [0, 8, 3]\nclass = versicolor", fillcolor="#83efb0"] ;
1 -> 2 ;
3 [label="gini = 0.0\nsamples = 29\nvalue = [41, 0, 0]\nclass = setosa", fillcolor="#e58139"] ;
1 -> 3 ;
4 [label="sepal length (cm) <= 6.25\ngini = 0.53\nsamples = 62\nvalue = [3, 51, 44]\nclass = versicolor", fillcolor="#e5fcef"] ;
0 -> 4 [labeldistance=2.5, labelangle=-45, headlabel="False"] ;
5 [label="gini = 0.37\nsamples = 34\nvalue = [3, 41, 9]\nclass = versicolor", fillcolor="#6feca3"] ;
4 -> 5 ;
6 [label="gini = 0.35\nsamples = 28\nvalue = [0, 10, 35]\nclass = virginica", fillcolor="#a572ec"] ;
4 -> 6 ;
}