digraph Tree {
node [shape=box, style="filled, rounded", color="black", fontname="helvetica"] ;
edge [fontname="helvetica"] ;
0 [label="sepal length (cm) <= 5.55\ngini = 0.67\nsamples = 98\nvalue = [51.0, 46.0, 53.0]\nclass = virginica", fillcolor="#fcfbfe"] ;
1 [label="petal width (cm) <= 0.8\ngini = 0.34\nsamples = 40\nvalue = [49, 12, 1]\nclass = setosa", fillcolor="#eca26c"] ;
0 -> 1 [labeldistance=2.5, labelangle=45, headlabel="True"] ;
2 [label="gini = 0.0\nsamples = 29\nvalue = [49, 0, 0]\nclass = setosa", fillcolor="#e58139"] ;
1 -> 2 ;
3 [label="gini = 0.14\nsamples = 11\nvalue = [0, 12, 1]\nclass = versicolor", fillcolor="#49e78c"] ;
1 -> 3 ;
4 [label="petal length (cm) <= 4.75\ngini = 0.5\nsamples = 58\nvalue = [2, 34, 52]\nclass = virginica", fillcolor="#d5bdf6"] ;
0 -> 4 [labeldistance=2.5, labelangle=-45, headlabel="False"] ;
5 [label="gini = 0.11\nsamples = 22\nvalue = [2, 31, 0]\nclass = versicolor", fillcolor="#46e789"] ;
4 -> 5 ;
6 [label="gini = 0.1\nsamples = 36\nvalue = [0, 3, 52]\nclass = virginica", fillcolor="#8844e6"] ;
4 -> 6 ;
}